digraph Tree {
node [shape=box, style="filled, rounded", color="black", fontname=helvetica] ;
edge [fontname=helvetica] ;
0 [label="Length <= 2195.0\ngini = 0.5\nsamples = 2803\nvalue = [2251, 2114]\nclass = White", fillcolor="#e5813910"] ;
1 [label="Length <= 1805.0\ngini = 0.499\nsamples = 2036\nvalue = [1631, 1476]\nclass = White", fillcolor="#e5813918"] ;
0 -> 1 [labeldistance=2.5, labelangle=45, headlabel="True"] ;
2 [label="gini = 0.5\nsamples = 1653\nvalue = [1272, 1218]\nclass = White", fillcolor="#e581390b"] ;
1 -> 2 ;
3 [label="gini = 0.487\nsamples = 383\nvalue = [359, 258]\nclass = White", fillcolor="#e5813948"] ;
1 -> 3 ;
4 [label="Hurst <= 0.739\ngini = 0.5\nsamples = 767\nvalue = [620, 638]\nclass = Pink", fillcolor="#399de507"] ;
0 -> 4 [labeldistance=2.5, labelangle=-45, headlabel="False"] ;
5 [label="gini = 0.0\nsamples = 365\nvalue = [620, 0]\nclass = White", fillcolor="#e58139ff"] ;
4 -> 5 ;
6 [label="gini = 0.0\nsamples = 402\nvalue = [0, 638]\nclass = Pink", fillcolor="#399de5ff"] ;
4 -> 6 ;
}