digraph Tree {
node [shape=box, style="filled, rounded", color="black", fontname=helvetica] ;
edge [fontname=helvetica] ;
0 [label="Length <= 1805.0\ngini = 0.5\nsamples = 2734\nvalue = [2213, 2152]\nclass = White", fillcolor="#e5813907"] ;
1 [label="Length <= 1765.0\ngini = 0.5\nsamples = 1616\nvalue = [1258, 1313]\nclass = Pink", fillcolor="#399de50b"] ;
0 -> 1 [labeldistance=2.5, labelangle=45, headlabel="True"] ;
2 [label="gini = 0.5\nsamples = 1576\nvalue = [1234, 1268]\nclass = Pink", fillcolor="#399de507"] ;
1 -> 2 ;
3 [label="gini = 0.454\nsamples = 40\nvalue = [24, 45]\nclass = Pink", fillcolor="#399de577"] ;
1 -> 3 ;
4 [label="Length <= 1905.0\ngini = 0.498\nsamples = 1118\nvalue = [955, 839]\nclass = White", fillcolor="#e581391f"] ;
0 -> 4 [labeldistance=2.5, labelangle=-45, headlabel="False"] ;
5 [label="gini = 0.469\nsamples = 103\nvalue = [103, 62]\nclass = White", fillcolor="#e5813966"] ;
4 -> 5 ;
6 [label="gini = 0.499\nsamples = 1015\nvalue = [852, 777]\nclass = White", fillcolor="#e5813916"] ;
4 -> 6 ;
}