digraph Tree {
node [shape=box, style="filled, rounded", color="black", fontname=helvetica] ;
edge [fontname=helvetica] ;
0 [label="Length <= 2135.0\ngini = 0.5\nsamples = 2763\nvalue = [2240, 2125]\nclass = White", fillcolor="#e581390d"] ;
1 [label="Length <= 2045.0\ngini = 0.5\nsamples = 1932\nvalue = [1536, 1518]\nclass = White", fillcolor="#e5813903"] ;
0 -> 1 [labeldistance=2.5, labelangle=45, headlabel="True"] ;
2 [label="gini = 0.5\nsamples = 1853\nvalue = [1488, 1437]\nclass = White", fillcolor="#e5813909"] ;
1 -> 2 ;
3 [label="gini = 0.467\nsamples = 79\nvalue = [48, 81]\nclass = Pink", fillcolor="#399de568"] ;
1 -> 3 ;
4 [label="Length <= 2635.0\ngini = 0.497\nsamples = 831\nvalue = [704, 607]\nclass = White", fillcolor="#e5813923"] ;
0 -> 4 [labeldistance=2.5, labelangle=-45, headlabel="False"] ;
5 [label="gini = 0.488\nsamples = 479\nvalue = [434, 319]\nclass = White", fillcolor="#e5813944"] ;
4 -> 5 ;
6 [label="gini = 0.499\nsamples = 352\nvalue = [270, 288]\nclass = Pink", fillcolor="#399de510"] ;
4 -> 6 ;
}