digraph Tree {
node [shape=box, style="filled, rounded", color="black", fontname=helvetica] ;
edge [fontname=helvetica] ;
0 [label="Length <= 2965.0\ngini = 0.5\nsamples = 2762\nvalue = [2206, 2159]\nclass = White", fillcolor="#e5813905"] ;
1 [label="Length <= 2945.0\ngini = 0.5\nsamples = 2733\nvalue = [2171, 2143]\nclass = White", fillcolor="#e5813903"] ;
0 -> 1 [labeldistance=2.5, labelangle=45, headlabel="True"] ;
2 [label="gini = 0.5\nsamples = 2714\nvalue = [2165, 2117]\nclass = White", fillcolor="#e5813906"] ;
1 -> 2 ;
3 [label="gini = 0.305\nsamples = 19\nvalue = [6, 26]\nclass = Pink", fillcolor="#399de5c4"] ;
1 -> 3 ;
4 [label="Hurst <= 0.738\ngini = 0.431\nsamples = 29\nvalue = [35, 16]\nclass = White", fillcolor="#e581398a"] ;
0 -> 4 [labeldistance=2.5, labelangle=-45, headlabel="False"] ;
5 [label="gini = 0.0\nsamples = 20\nvalue = [35, 0]\nclass = White", fillcolor="#e58139ff"] ;
4 -> 5 ;
6 [label="gini = 0.0\nsamples = 9\nvalue = [0, 16]\nclass = Pink", fillcolor="#399de5ff"] ;
4 -> 6 ;
}