digraph Tree {
node [shape=box, style="filled, rounded", color="black", fontname=helvetica] ;
edge [fontname=helvetica] ;
0 [label="Length <= 185.0\ngini = 0.5\nsamples = 2779\nvalue = [2195, 2170]\nclass = White", fillcolor="#e5813903"] ;
1 [label="Length <= 145.0\ngini = 0.443\nsamples = 80\nvalue = [81, 40]\nclass = White", fillcolor="#e5813981"] ;
0 -> 1 [labeldistance=2.5, labelangle=45, headlabel="True"] ;
2 [label="gini = 0.469\nsamples = 48\nvalue = [45, 27]\nclass = White", fillcolor="#e5813966"] ;
1 -> 2 ;
3 [label="gini = 0.39\nsamples = 32\nvalue = [36, 13]\nclass = White", fillcolor="#e58139a3"] ;
1 -> 3 ;
4 [label="Length <= 335.0\ngini = 0.5\nsamples = 2699\nvalue = [2114, 2130]\nclass = Pink", fillcolor="#399de502"] ;
0 -> 4 [labeldistance=2.5, labelangle=-45, headlabel="False"] ;
5 [label="gini = 0.49\nsamples = 142\nvalue = [98, 130]\nclass = Pink", fillcolor="#399de53f"] ;
4 -> 5 ;
6 [label="gini = 0.5\nsamples = 2557\nvalue = [2016, 2000]\nclass = White", fillcolor="#e5813902"] ;
4 -> 6 ;
}