digraph Tree {
node [shape=box, style="filled, rounded", color="black", fontname=helvetica] ;
edge [fontname=helvetica] ;
0 [label="Length <= 2915.0\ngini = 0.499\nsamples = 2746\nvalue = [2252, 2113]\nclass = White", fillcolor="#e5813910"] ;
1 [label="Hurst <= 0.742\ngini = 0.499\nsamples = 2656\nvalue = [2194, 2037]\nclass = White", fillcolor="#e5813912"] ;
0 -> 1 [labeldistance=2.5, labelangle=45, headlabel="True"] ;
2 [label="gini = 0.0\nsamples = 1362\nvalue = [2194, 0]\nclass = White", fillcolor="#e58139ff"] ;
1 -> 2 ;
3 [label="gini = 0.0\nsamples = 1294\nvalue = [0, 2037]\nclass = Pink", fillcolor="#399de5ff"] ;
1 -> 3 ;
4 [label="Length <= 2955.0\ngini = 0.491\nsamples = 90\nvalue = [58, 76]\nclass = Pink", fillcolor="#399de53c"] ;
0 -> 4 [labeldistance=2.5, labelangle=-45, headlabel="False"] ;
5 [label="gini = 0.498\nsamples = 43\nvalue = [28, 32]\nclass = Pink", fillcolor="#399de520"] ;
4 -> 5 ;
6 [label="gini = 0.482\nsamples = 47\nvalue = [30, 44]\nclass = Pink", fillcolor="#399de551"] ;
4 -> 6 ;
}