digraph Tree {
node [shape=box, style="filled, rounded", color="black", fontname=helvetica] ;
edge [fontname=helvetica] ;
0 [label="Length <= 435.0\ngini = 0.5\nsamples = 2778\nvalue = [2151, 2214]\nclass = Pink", fillcolor="#399de507"] ;
1 [label="Hurst <= 0.741\ngini = 0.493\nsamples = 349\nvalue = [239, 302]\nclass = Pink", fillcolor="#399de535"] ;
0 -> 1 [labeldistance=2.5, labelangle=45, headlabel="True"] ;
2 [label="gini = 0.0\nsamples = 163\nvalue = [239, 0]\nclass = White", fillcolor="#e58139ff"] ;
1 -> 2 ;
3 [label="gini = 0.0\nsamples = 186\nvalue = [0, 302]\nclass = Pink", fillcolor="#399de5ff"] ;
1 -> 3 ;
4 [label="Length <= 2625.0\ngini = 0.5\nsamples = 2429\nvalue = [1912, 1912]\nclass = White", fillcolor="#e5813900"] ;
0 -> 4 [labeldistance=2.5, labelangle=-45, headlabel="False"] ;
5 [label="gini = 0.5\nsamples = 2087\nvalue = [1674, 1625]\nclass = White", fillcolor="#e5813907"] ;
4 -> 5 ;
6 [label="gini = 0.496\nsamples = 342\nvalue = [238, 287]\nclass = Pink", fillcolor="#399de52c"] ;
4 -> 6 ;
}