digraph Tree {
node [shape=box, style="filled, rounded", color="black", fontname=helvetica] ;
edge [fontname=helvetica] ;
0 [label="Length <= 2795.0\ngini = 0.5\nsamples = 2750\nvalue = [2228, 2137]\nclass = White", fillcolor="#e581390a"] ;
1 [label="Hurst <= 0.742\ngini = 0.499\nsamples = 2559\nvalue = [2106, 1962]\nclass = White", fillcolor="#e5813911"] ;
0 -> 1 [labeldistance=2.5, labelangle=45, headlabel="True"] ;
2 [label="gini = 0.0\nsamples = 1304\nvalue = [2106, 0]\nclass = White", fillcolor="#e58139ff"] ;
1 -> 2 ;
3 [label="gini = 0.0\nsamples = 1255\nvalue = [0, 1962]\nclass = Pink", fillcolor="#399de5ff"] ;
1 -> 3 ;
4 [label="Length <= 2825.0\ngini = 0.484\nsamples = 191\nvalue = [122, 175]\nclass = Pink", fillcolor="#399de54d"] ;
0 -> 4 [labeldistance=2.5, labelangle=-45, headlabel="False"] ;
5 [label="gini = 0.426\nsamples = 21\nvalue = [12, 27]\nclass = Pink", fillcolor="#399de58e"] ;
4 -> 5 ;
6 [label="gini = 0.489\nsamples = 170\nvalue = [110, 148]\nclass = Pink", fillcolor="#399de541"] ;
4 -> 6 ;
}