digraph Tree {
node [shape=box, style="filled, rounded", color="black", fontname=helvetica] ;
edge [fontname=helvetica] ;
0 [label="Length <= 2615.0\ngini = 0.5\nsamples = 2750\nvalue = [2170, 2195]\nclass = Pink", fillcolor="#399de503"] ;
1 [label="Hurst <= 0.745\ngini = 0.5\nsamples = 2367\nvalue = [1894, 1869]\nclass = White", fillcolor="#e5813903"] ;
0 -> 1 [labeldistance=2.5, labelangle=45, headlabel="True"] ;
2 [label="gini = 0.0\nsamples = 1189\nvalue = [1894, 0]\nclass = White", fillcolor="#e58139ff"] ;
1 -> 2 ;
3 [label="gini = 0.0\nsamples = 1178\nvalue = [0, 1869]\nclass = Pink", fillcolor="#399de5ff"] ;
1 -> 3 ;
4 [label="Length <= 2735.0\ngini = 0.497\nsamples = 383\nvalue = [276, 326]\nclass = Pink", fillcolor="#399de527"] ;
0 -> 4 [labeldistance=2.5, labelangle=-45, headlabel="False"] ;
5 [label="gini = 0.478\nsamples = 126\nvalue = [83, 127]\nclass = Pink", fillcolor="#399de558"] ;
4 -> 5 ;
6 [label="gini = 0.5\nsamples = 257\nvalue = [193, 199]\nclass = Pink", fillcolor="#399de508"] ;
4 -> 6 ;
}