digraph Tree {
node [shape=box, style="filled, rounded", color="black", fontname=helvetica] ;
edge [fontname=helvetica] ;
0 [label="Length <= 325.0\ngini = 0.5\nsamples = 2729\nvalue = [2212, 2153]\nclass = White", fillcolor="#e5813907"] ;
1 [label="Length <= 295.0\ngini = 0.497\nsamples = 223\nvalue = [165, 193]\nclass = Pink", fillcolor="#399de525"] ;
0 -> 1 [labeldistance=2.5, labelangle=45, headlabel="True"] ;
2 [label="gini = 0.499\nsamples = 196\nvalue = [150, 164]\nclass = Pink", fillcolor="#399de516"] ;
1 -> 2 ;
3 [label="gini = 0.449\nsamples = 27\nvalue = [15, 29]\nclass = Pink", fillcolor="#399de57b"] ;
1 -> 3 ;
4 [label="Hurst <= 0.753\ngini = 0.5\nsamples = 2506\nvalue = [2047, 1960]\nclass = White", fillcolor="#e581390b"] ;
0 -> 4 [labeldistance=2.5, labelangle=-45, headlabel="False"] ;
5 [label="gini = 0.0\nsamples = 1257\nvalue = [2047, 0]\nclass = White", fillcolor="#e58139ff"] ;
4 -> 5 ;
6 [label="gini = 0.0\nsamples = 1249\nvalue = [0, 1960]\nclass = Pink", fillcolor="#399de5ff"] ;
4 -> 6 ;
}