digraph Tree {
node [shape=box, style="filled, rounded", color="black", fontname=helvetica] ;
edge [fontname=helvetica] ;
0 [label="Hurst <= 0.715\ngini = 0.5\nsamples = 2752\nvalue = [2164, 2201]\nclass = Pink", fillcolor="#399de504"] ;
1 [label="gini = 0.0\nsamples = 1362\nvalue = [2164, 0]\nclass = White", fillcolor="#e58139ff"] ;
0 -> 1 [labeldistance=2.5, labelangle=45, headlabel="True"] ;
2 [label="gini = 0.0\nsamples = 1390\nvalue = [0, 2201]\nclass = Pink", fillcolor="#399de5ff"] ;
0 -> 2 [labeldistance=2.5, labelangle=-45, headlabel="False"] ;
}