digraph Tree {
node [shape=box, style="filled, rounded", color="black", fontname=helvetica] ;
edge [fontname=helvetica] ;
0 [label="Length <= 2635.0\ngini = 0.5\nsamples = 2747\nvalue = [2187, 2178]\nclass = White", fillcolor="#e5813901"] ;
1 [label="Length <= 2135.0\ngini = 0.5\nsamples = 2402\nvalue = [1954, 1883]\nclass = White", fillcolor="#e5813909"] ;
0 -> 1 [labeldistance=2.5, labelangle=45, headlabel="True"] ;
2 [label="gini = 0.5\nsamples = 1935\nvalue = [1551, 1557]\nclass = Pink", fillcolor="#399de501"] ;
1 -> 2 ;
3 [label="gini = 0.494\nsamples = 467\nvalue = [403, 326]\nclass = White", fillcolor="#e5813931"] ;
1 -> 3 ;
4 [label="Length <= 2985.0\ngini = 0.493\nsamples = 345\nvalue = [233, 295]\nclass = Pink", fillcolor="#399de536"] ;
0 -> 4 [labeldistance=2.5, labelangle=-45, headlabel="False"] ;
5 [label="gini = 0.495\nsamples = 329\nvalue = [226, 276]\nclass = Pink", fillcolor="#399de52e"] ;
4 -> 5 ;
6 [label="gini = 0.393\nsamples = 16\nvalue = [7, 19]\nclass = Pink", fillcolor="#399de5a1"] ;
4 -> 6 ;
}