digraph Tree {
node [shape=box, style="filled, rounded", color="black", fontname=helvetica] ;
edge [fontname=helvetica] ;
0 [label="Hurst <= 0.733\ngini = 0.5\nsamples = 2754\nvalue = [2190, 2175]\nclass = White", fillcolor="#e5813902"] ;
1 [label="gini = 0.0\nsamples = 1375\nvalue = [2190, 0]\nclass = White", fillcolor="#e58139ff"] ;
0 -> 1 [labeldistance=2.5, labelangle=45, headlabel="True"] ;
2 [label="gini = 0.0\nsamples = 1379\nvalue = [0, 2175]\nclass = Pink", fillcolor="#399de5ff"] ;
0 -> 2 [labeldistance=2.5, labelangle=-45, headlabel="False"] ;
}