digraph Tree {
node [shape=box, style="filled, rounded", color="black", fontname=helvetica] ;
edge [fontname=helvetica] ;
0 [label="Length <= 2955.0\ngini = 0.5\nsamples = 2774\nvalue = [2229, 2136]\nclass = White", fillcolor="#e581390b"] ;
1 [label="Length <= 155.0\ngini = 0.5\nsamples = 2737\nvalue = [2213, 2102]\nclass = White", fillcolor="#e581390d"] ;
0 -> 1 [labeldistance=2.5, labelangle=45, headlabel="True"] ;
2 [label="gini = 0.471\nsamples = 61\nvalue = [57, 35]\nclass = White", fillcolor="#e5813962"] ;
1 -> 2 ;
3 [label="gini = 0.5\nsamples = 2676\nvalue = [2156, 2067]\nclass = White", fillcolor="#e581390b"] ;
1 -> 3 ;
4 [label="Length <= 2975.0\ngini = 0.435\nsamples = 37\nvalue = [16, 34]\nclass = Pink", fillcolor="#399de587"] ;
0 -> 4 [labeldistance=2.5, labelangle=-45, headlabel="False"] ;
5 [label="gini = 0.278\nsamples = 13\nvalue = [3, 15]\nclass = Pink", fillcolor="#399de5cc"] ;
4 -> 5 ;
6 [label="gini = 0.482\nsamples = 24\nvalue = [13, 19]\nclass = Pink", fillcolor="#399de551"] ;
4 -> 6 ;
}