digraph Tree {
node [shape=box, style="filled, rounded", color="black", fontname=helvetica] ;
edge [fontname=helvetica] ;
0 [label="Length <= 1655.0\ngini = 0.5\nsamples = 2769\nvalue = [2246, 2119]\nclass = White", fillcolor="#e581390e"] ;
1 [label="Hurst <= 0.742\ngini = 0.5\nsamples = 1479\nvalue = [1126, 1185]\nclass = Pink", fillcolor="#399de50d"] ;
0 -> 1 [labeldistance=2.5, labelangle=45, headlabel="True"] ;
2 [label="gini = 0.0\nsamples = 731\nvalue = [1126, 0]\nclass = White", fillcolor="#e58139ff"] ;
1 -> 2 ;
3 [label="gini = 0.0\nsamples = 748\nvalue = [0, 1185]\nclass = Pink", fillcolor="#399de5ff"] ;
1 -> 3 ;
4 [label="Hurst <= 0.717\ngini = 0.496\nsamples = 1290\nvalue = [1120, 934]\nclass = White", fillcolor="#e581392a"] ;
0 -> 4 [labeldistance=2.5, labelangle=-45, headlabel="False"] ;
5 [label="gini = 0.0\nsamples = 680\nvalue = [1120, 0]\nclass = White", fillcolor="#e58139ff"] ;
4 -> 5 ;
6 [label="gini = 0.0\nsamples = 610\nvalue = [0, 934]\nclass = Pink", fillcolor="#399de5ff"] ;
4 -> 6 ;
}