digraph Tree {
node [shape=box, style="filled, rounded", color="black", fontname=helvetica] ;
edge [fontname=helvetica] ;
0 [label="Length <= 175.0\ngini = 0.5\nsamples = 2782\nvalue = [2200, 2165]\nclass = White", fillcolor="#e5813904"] ;
1 [label="Hurst <= 0.742\ngini = 0.444\nsamples = 73\nvalue = [74, 37]\nclass = White", fillcolor="#e581397f"] ;
0 -> 1 [labeldistance=2.5, labelangle=45, headlabel="True"] ;
2 [label="gini = 0.0\nsamples = 46\nvalue = [74, 0]\nclass = White", fillcolor="#e58139ff"] ;
1 -> 2 ;
3 [label="gini = 0.0\nsamples = 27\nvalue = [0, 37]\nclass = Pink", fillcolor="#399de5ff"] ;
1 -> 3 ;
4 [label="Hurst <= 0.713\ngini = 0.5\nsamples = 2709\nvalue = [2126, 2128]\nclass = Pink", fillcolor="#399de500"] ;
0 -> 4 [labeldistance=2.5, labelangle=-45, headlabel="False"] ;
5 [label="gini = 0.0\nsamples = 1353\nvalue = [2126, 0]\nclass = White", fillcolor="#e58139ff"] ;
4 -> 5 ;
6 [label="gini = 0.0\nsamples = 1356\nvalue = [0, 2128]\nclass = Pink", fillcolor="#399de5ff"] ;
4 -> 6 ;
}