digraph Tree {
node [shape=box, style="filled, rounded", color="black", fontname=helvetica] ;
edge [fontname=helvetica] ;
0 [label="Hurst <= 0.742\ngini = 0.5\nsamples = 2747\nvalue = [2182, 2183]\nclass = Pink", fillcolor="#399de500"] ;
1 [label="gini = 0.0\nsamples = 1382\nvalue = [2182, 0]\nclass = White", fillcolor="#e58139ff"] ;
0 -> 1 [labeldistance=2.5, labelangle=45, headlabel="True"] ;
2 [label="gini = 0.0\nsamples = 1365\nvalue = [0, 2183]\nclass = Pink", fillcolor="#399de5ff"] ;
0 -> 2 [labeldistance=2.5, labelangle=-45, headlabel="False"] ;
}