digraph Tree {
node [shape=box, style="filled, rounded", color="black", fontname=helvetica] ;
edge [fontname=helvetica] ;
0 [label="Hurst <= 0.742\ngini = 0.5\nsamples = 2746\nvalue = [2133, 2232]\nclass = Pink", fillcolor="#399de50b"] ;
1 [label="gini = 0.0\nsamples = 1361\nvalue = [2133, 0]\nclass = White", fillcolor="#e58139ff"] ;
0 -> 1 [labeldistance=2.5, labelangle=45, headlabel="True"] ;
2 [label="gini = 0.0\nsamples = 1385\nvalue = [0, 2232]\nclass = Pink", fillcolor="#399de5ff"] ;
0 -> 2 [labeldistance=2.5, labelangle=-45, headlabel="False"] ;
}